%YAML:1.0
opencv_ml_ann_mlp:
   format: 3
   layer_sizes: [ 11, 10, 5 ]
   activation_function: SIGMOID_SYM
   f_param1: 6.6666666666666663e-01
   f_param2: 1.7159000000000000e+00
   min_val: -9.4999999999999996e-01
   max_val: 9.4999999999999996e-01
   min_val1: -9.7999999999999998e-01
   max_val1: 9.7999999999999998e-01
   training_params:
      train_method: RPROP
      dw0: 1.0000000149011612e-01
      dw_plus: 1.2000000000000000e+00
      dw_minus: 5.0000000000000000e-01
      dw_min: 1.
      dw_max: 50.
      term_criteria:
         epsilon: 9.9999997473787516e-05
         iterations: 100
   input_scale:
      - 1.1629481385379113e-04
      - -7.6805346290572318e+00
      - 5.1588138465266655e-03
      - -1.3415839328815695e+01
      - 2.0718089023022176e-01
      - -6.7003448789064963e+00
      - 1.7678663941544639e-01
      - -4.8381546407356986e+00
      - 1.8644454358682125e-01
      - -7.4353723602441431e+00
      - 1.1907038077878668e-01
      - -8.4589247042084761e+00
      - 1.7135686823415341e+02
      - -2.0991612348160217e+01
      - 1.1945143319255747e+01
      - -9.0835213849760574e+00
      - 2.2860685424800785e+01
      - -1.4074076837483668e+01
      - 3.9862985560514252e-01
      - -4.5105508981683977e+00
      - 1.2111139032519162e+02
      - -1.1387864661379257e+02
   output_scale:
      - 5.2631578947368418e-01
      - 4.9999999999999994e-01
      - 5.2631578947368418e-01
      - 4.9999999999999994e-01
      - 5.2631578947368418e-01
      - 4.9999999999999994e-01
      - 5.2631578947368418e-01
      - 4.9999999999999994e-01
      - 5.2631578947368418e-01
      - 4.9999999999999994e-01
   inv_output_scale:
      - 1.8999999999999999e+00
      - -9.4999999999999996e-01
      - 1.8999999999999999e+00
      - -9.4999999999999996e-01
      - 1.8999999999999999e+00
      - -9.4999999999999996e-01
      - 1.8999999999999999e+00
      - -9.4999999999999996e-01
      - 1.8999999999999999e+00
      - -9.4999999999999996e-01
   weights:
      -
         - -4.8333202034822662e+00
         - -2.6785495507952239e+00
         - -9.7789107431879110e+00
         - -3.3468024543168244e+00
         - -1.4261964707283797e+01
         - -1.1707777774099102e+00
         - -5.2988051584359930e+00
         - -1.2104762833643301e+01
         - 3.3034433466063851e-01
         - -2.4084760176956177e+01
         - -1.5844298364085088e+01
         - 8.8031120300477124e+00
         - 1.5203644286066540e+00
         - -1.0798321470105226e+02
         - -1.1374939757550726e+01
         - -2.6481694527336565e+01
         - -1.2784543333889729e+00
         - -2.3570134729143821e+00
         - 3.7621822676214971e+00
         - -3.7684659804565797e+01
         - -1.1574633363334092e+01
         - -1.3182671968666449e+01
         - -7.3178781926937333e+00
         - -1.9943335261176376e+01
         - -8.4382113599693600e+00
         - -1.4181258859284551e+01
         - -1.2207456826095486e+01
         - 2.3999594091997318e+00
         - -2.6063398010376391e+00
         - -1.6902060606072954e+01
         - -2.0221617552056244e+01
         - 2.8835088485068134e+01
         - 1.1976672394130499e+00
         - 2.5448692842571262e+01
         - -1.4795621846067380e+01
         - 3.4100535697293188e+00
         - -6.1983814279922722e+00
         - 2.5725511838901735e+01
         - -1.9643471038039728e+01
         - 1.1762321882577686e+01
         - -1.3346539543806278e+01
         - 2.0401633443571775e+01
         - -7.2371202140060094e+00
         - 1.2117800429729542e+01
         - -2.1202218158397187e+01
         - -4.0202877254039517e+00
         - -5.3646653237547550e+00
         - 2.0021547611070223e-01
         - -7.1746124498966832e+00
         - -7.8080240837769619e+00
         - -2.3961665685372960e+01
         - 2.3097504838255031e+01
         - -2.6715274851702731e+01
         - -1.1920396050696150e+01
         - -1.3656301659674117e+01
         - 2.4930317942499883e+01
         - -2.8218372945579411e+00
         - 2.6419299718899733e+01
         - -2.9528644643944880e+01
         - 6.7548592395150671e+00
         - -1.5214368390713107e+00
         - -3.2130946367850148e+00
         - -5.6636486135659969e-01
         - 4.6532240923803194e+01
         - 4.2810770402058260e+00
         - 1.2652568420473147e+01
         - -1.3517642866964801e+00
         - -1.7241142903289681e+01
         - -8.9710029004873899e+00
         - 4.8724555407345047e+00
         - -5.7102886932726635e+00
         - -1.3127714513642206e+00
         - 1.2768582855902311e+00
         - -7.7136392937532747e+01
         - -9.5087406568127975e+00
         - -3.7844171743548991e+01
         - -3.6049212551252685e-01
         - -5.6028421142884506e+00
         - 6.8690622444393226e+00
         - -2.0476832787332313e+01
         - 4.6283684145447435e+00
         - 5.0595179247887030e+00
         - 9.8515656969747063e+00
         - 3.1691433187759035e+00
         - 1.0823014658891109e+01
         - 1.0974807638224411e+00
         - 5.2604627766439016e+00
         - 1.1559092757846338e+01
         - -2.9173940613210219e+00
         - 2.1254656696365593e+01
         - 1.5079384887951246e+01
         - -2.6921282826354410e+01
         - -4.7840265374971214e+00
         - -2.3948831856363064e+01
         - -1.5106206424009216e+01
         - -8.4262992333148379e-01
         - 3.9162485584024922e+00
         - -2.0868089189514038e+01
         - -1.7107484522544862e+01
         - 4.6089640478844416e+00
         - 7.5079284995913120e+00
         - -4.3700712152885322e+00
         - -1.0926596528879571e+01
         - 1.2360023191537002e+00
         - -9.7461293561759343e-01
         - 1.1062264375135886e+01
         - 1.0997703207583152e+01
         - 1.3544219161058090e+01
         - -2.2827333976583432e+01
         - 2.7109780119952784e+01
         - -1.2247295566650905e+01
         - 1.2008341136620748e+01
         - -2.5932163664743559e+01
         - -2.9394825999263441e+00
         - -2.2414354464991646e+01
         - -1.9224006414796733e+01
         - 5.2597187244813504e+01
         - -1.8403526584828949e+01
         - -1.3267885424560353e+01
         - -1.0684774835020447e+01
      -
         - 6.3889801083052493e+00
         - 1.3902974445004210e+01
         - 5.1723191883779052e+00
         - -1.8903282398606201e+01
         - -6.3493153615191318e+00
         - -6.1762827442946939e+00
         - -2.1081371280348549e+00
         - -1.5891776154622523e+01
         - 8.0797770968351266e+00
         - 7.1689776792703324e+00
         - 8.4497006742724530e+00
         - 1.1081742036330041e+01
         - -3.5118341927695367e+00
         - 4.7315042401818506e+00
         - -3.3310818256148131e+00
         - -1.7710259839278773e+01
         - 6.1173602308914008e+00
         - 7.9713625930554244e+00
         - 3.7891394617981655e+00
         - 7.2149248680687315e+00
         - -4.2639855580170938e+00
         - 1.6836668368572031e+01
         - -7.6747885270165073e-02
         - 6.4308569421104478e+00
         - 9.7419050401214857e+00
         - -1.1044852535338469e+01
         - -3.3123595226517883e+00
         - 4.6497642548164757e+00
         - -1.2702042230472681e+01
         - 7.8627659048495762e+00
         - -9.1302650211378928e+00
         - -7.7625807080814200e+00
         - -8.2255110368050381e+00
         - -1.9322405670653790e+01
         - -1.2075176965584557e+01
         - 5.0805798581815997e-02
         - 5.0970410577053986e+00
         - 4.4428553555013401e+00
         - -6.7975343490635849e+00
         - 1.7500801366073734e+01
         - 1.4044920802522682e+01
         - 7.8459147357704921e+00
         - -1.1170756258089028e+01
         - 1.2891779643887116e+01
         - -1.0406617320638554e+00
         - 1.1985048306800934e+01
         - -6.3519923138759911e+00
         - 6.6561569608545348e+00
         - 2.9597511345448195e+00
         - 1.1469170190851129e+01
         - -2.4704749568884722e+01
         - -2.1424178998614028e+01
         - -2.0771039538464660e+01
         - -1.9252770108198373e+01
         - -2.4610097408644172e+01
